{"argNumInputs":5,"argNumHidden":15,"argLearningRate":0.01,"argMomentumTerm":0.9,"argA":0.0,"argB":1.0,"bipolar":false,"weightIH":{"m":[[-1.2522560104298486,-1.0917515251551162,-1.979633817192221,-2.011573355083935,-1.5524691201113923],[-0.7135321844465822,7.293921458050827,31.95832287902568,7.410035369209531,-3.2152273105413887],[-0.995928041909947,-1.5372719317852812,-1.7380754638197018,-1.996700715107509,-1.3575757262688137],[0.43405417272640634,1.2327301488076974,1.6843542092975452,1.6664746960940537,1.5641585406226306],[1.3554548010145082,1.1019992697186074,1.5665906916974808,1.9264037169848254,1.4999314327833082],[1.6351216113768867,1.0768653891562203,1.8212110675015978,2.145178968381865,1.5622875240617655],[4.127040189532821,6.244759406965667,6.52016128027627,9.264058180377706,0.7355951744692679],[0.742541397944279,0.8449278469360199,1.3298737163773193,1.3421097728568427,0.705727606125559],[-1.040870334434775,-1.3981129727247112,-1.1514026263763992,-2.1762201487018924,-1.125082829210346],[-1.0667659364007562,-1.6982829919336264,-1.5798583280428862,-2.3800402594808134,-1.5853335940180788],[0.30971496676381827,1.1631283153916874,1.6766303094824253,1.4112854155024956,1.3940094262274234],[-1.2905859599644618,-0.9865364799820099,-1.6264272429551108,-1.9985082044194833,-1.4206892520038947],[2.1321160213835304,1.1691702277474918,2.167848887385515,2.32364104789171,1.4855520605059822],[1.687632172054077,1.3165802798713728,2.077525929704985,2.000956609061471,1.275410597941744],[-0.20398820594475248,-1.179357867109751,-1.2477535942989906,-1.4990358124219787,-1.3115856440157143]],"rows":15,"cols":5},"weightHO":{"m":[[0.2973574001985225,-6.067668184182279,0.19190992541054197,-0.13508046461130044,-0.28104318322194816,-0.311258712442562,-0.46423469151047325,-0.08865051258422774,0.3771842337061658,0.312765797462226,-0.1138895497972607,0.39766631018875004,-0.3644307360692041,-0.20903652601817863,0.20312701190088633]],"rows":1,"cols":15},"biasH":{"m":[[-2.22875220291595],[-34.211141052216476],[-2.273474760185121],[2.5246997144790626],[3.2296978001338816],[2.5621085863537183],[-14.17484774665373],[2.586208118882854],[-3.9051492336651505],[-2.672587770107119],[2.640907508398511],[-3.378146031150547],[1.562135620973264],[1.8146570351832272],[-3.8360127597082117]],"rows":15,"cols":1},"biasO":{"m":[[-0.5210019461031585]],"rows":1,"cols":1},"d_weightIH":{"m":[[-2.8012876272480556E-6,-2.801288682365905E-6,-2.7991678671064024E-6,-1.2148170510886383E-6,-9.019598665616754E-7],[0.002464741951041224,0.002464742510897357,0.002508467617569641,2.1450433390997055E-4,0.0019628573442092468],[-1.9552605885923106E-6,-1.955261457661561E-6,-1.953970957640121E-6,-8.520106938767722E-7,-6.656588675036581E-7],[2.9121176684783455E-6,2.9121187914623793E-6,2.9126423037123815E-6,1.367692515442891E-6,9.347412896768906E-7],[1.3868031954854253E-6,1.3868036931089851E-6,1.3862176609557995E-6,6.144034379862843E-7,4.531507076939199E-7],[1.6048488885547447E-6,1.6048494176139721E-6,1.6032918948693404E-6,6.749917869339472E-7,5.151049131141122E-7],[6.240251840570671E-5,6.240253935022686E-5,6.132533411271807E-5,4.620401323403245E-6,2.5610683847348984E-5],[4.430672192894099E-6,4.430673572095205E-6,4.433665234382922E-6,2.237080999676823E-6,1.8098166056718106E-6],[-1.4928368220788428E-6,-1.4928373891021563E-6,-1.4916407537549236E-6,-6.252819529903911E-7,-5.426318552981533E-7],[-1.5708833195922304E-6,-1.5708839663551386E-6,-1.5688148351331447E-6,-6.257599756477733E-7,-5.008256423791882E-7],[3.1982022785883857E-6,3.1982035428569518E-6,3.2006562368659825E-6,1.5881721443781602E-6,1.0780869388645017E-6],[-1.8974994610582372E-6,-1.8975001401530882E-6,-1.896322263895651E-6,-8.267599841291255E-7,-6.343084222554062E-7],[1.9091602376335967E-6,1.9091608495995986E-6,1.9061019342210947E-6,7.683897140726977E-7,6.264840676711547E-7],[1.539688184634004E-6,1.5396887435288827E-6,1.5384849830769862E-6,6.6882468567215E-7,5.365785125510544E-7],[-2.8585234151617237E-6,-2.8585247531691298E-6,-2.859723603740695E-6,-1.395785107434493E-6,-9.859412159579096E-7]],"rows":15,"cols":5},"d_weightHO":{"m":[[-5.78622992584527E-9,-7.296599172458694E-6,-5.859347443526469E-9,-2.6453403737762423E-6,-2.652695044593002E-6,-2.6520568473908822E-6,-1.8719625866842091E-6,-2.6377386744825408E-6,-2.174748811947053E-9,-3.291829797838457E-9,-2.6446384157414395E-6,-2.6698170960038554E-9,-2.651353784040509E-6,-2.6506717227523796E-6,-5.367187704919579E-9]],"rows":1,"cols":15},"d_biasH":{"m":[[-2.8012876272480556E-6],[0.002464741951041224],[-1.9552605885923106E-6],[2.9121176684783455E-6],[1.3868031954854253E-6],[1.6048488885547447E-6],[6.240251840570671E-5],[4.430672192894099E-6],[-1.4928368220788428E-6],[-1.5708833195922304E-6],[3.1982022785883857E-6],[-1.8974994610582372E-6],[1.9091602376335967E-6],[1.539688184634004E-6],[-2.8585234151617237E-6]],"rows":15,"cols":1},"d_biasO":{"m":[[-2.655308681752775E-6]],"rows":1,"cols":1}}